{
  "featureNames": [
    "topicYesRate",
    "topicNoRate",
    "topicAbstainRate",
    "hasHistory",
    "logSampleSize",
    "idealPoint",
    "democracyIndex",
    "dim_sovereignty",
    "dim_humanRights",
    "dim_development",
    "dim_security",
    "dim_environment",
    "dim_decolonization",
    "peerSignal",
    "interaction_idealXyes",
    "interaction_idealXno",
    "interaction_democXabstain",
    "interaction_peerXideal",
    "region_AFRICAN",
    "region_APG",
    "region_EEG",
    "region_GRULAC",
    "region_WEOG",
    "issue_Arms_control_and_disarmament",
    "issue_Colonialism",
    "issue_Economic_development",
    "issue_Human_rights",
    "issue_Nuclear_weapons_and_nuclear_material",
    "issue_Palestinian_conflict"
  ],
  "weights": [
    [
      -1.56037751772323,
      0.7512624526134233,
      -0.8974684321991729,
      0.6290095232386008,
      0.514624156707817,
      0.44182459298465465,
      0.027695849887243502,
      0.5191006021484038,
      -0.19976115275707784,
      0.24324475249071542,
      0.03327900139295838,
      -0.017967359568242372,
      -0.09351486564389548,
      -1.91666995682179,
      -0.15060440956777918,
      -0.2613291743314118,
      -0.49827766886855374,
      -0.9365234022346725,
      -0.1913137687552714,
      0.1732090601447133,
      0.2466610915902678,
      0.03378909486376659,
      0.36540106313203236,
      0.006369955205416635,
      0.05687173217017577,
      0.2097058220958228,
      0.20433049433605077,
      0.28356426421487624,
      -0.133095727046833
    ],
    [
      -0.9040029254118812,
      -1.1444227506419937,
      2.4701764313571193,
      -0.0066914082536144465,
      0.09464721545333207,
      -0.08051420196111808,
      -0.16115062961991572,
      -0.25122612379131454,
      0.05008290963064929,
      -0.09976235066009631,
      0.022724917531709122,
      0.08842197016920614,
      0.20678726814595566,
      0.6501117470241303,
      -0.2936097778379612,
      -0.05488337716058794,
      0.9759598491694077,
      0.5898767402532873,
      0.09201172086804675,
      -0.03044657173369248,
      -0.03666544163561366,
      0.07506064369284497,
      -0.07764097521649937,
      0.016808120123421477,
      0.09523364208203076,
      0.10051658883478082,
      0.03227806093408151,
      -0.24534474297228706,
      0.022827706973060035
    ],
    [
      2.4643804431351146,
      0.3931602980285606,
      -1.5727079991579573,
      -0.6223181149849809,
      -0.6092713721611511,
      -0.36131039102353607,
      0.13345477973267322,
      -0.2678744783570897,
      0.1496782431264292,
      -0.1434824018306207,
      -0.05600391892466767,
      -0.07045461060096446,
      -0.11327240250205947,
      1.2665582097976442,
      0.44421418740573915,
      0.3162125514919999,
      -0.4776821803008547,
      0.34664666198139193,
      0.09930204788722298,
      -0.14276248841102074,
      -0.20999564995465533,
      -0.10884973855661112,
      -0.28776008791553126,
      -0.023178075328838213,
      -0.1521053742522054,
      -0.3102224109306061,
      -0.23660855527013067,
      -0.03821952124258985,
      0.11026802007377254
    ]
  ],
  "bias": [
    0.9175847562148022,
    0.05158478235298441,
    -0.9691695385677768
  ],
  "metadata": {
    "trainSessions": "60-72 (2005-2017)",
    "testSessions": "73-74 (2018-2019)",
    "accuracy": 0.6505775991963837,
    "macroF1": 0.49827484602881017,
    "f1PerClass": {
      "no": 0.40396964389959134,
      "abstain": 0.29805615550755943,
      "yes": 0.7927987386792797
    },
    "classWeights": [
      4.387183025702949,
      2.96002094972067,
      0.4108078858315094
    ],
    "trainedAt": "2026-05-22T05:54:40.547Z",
    "numFeatures": 29,
    "numTrainExamples": 152595,
    "numTestExamples": 19910,
    "technique": "Multinomial Logistic Regression with inverse-frequency class weighting, mini-batch SGD, L2 regularization, interaction features"
  }
}