{
  "featureNames": [
    "idealPoint",
    "democracyIndex",
    "dim_sovereignty",
    "dim_humanRights",
    "dim_development",
    "dim_security",
    "dim_environment",
    "dim_decolonization",
    "region_AFRICAN",
    "region_APG",
    "region_EEG",
    "region_GRULAC",
    "region_WEOG",
    "issue_arms_control",
    "issue_colonialism",
    "issue_economic_dev",
    "issue_human_rights",
    "issue_nuclear",
    "issue_palestinian",
    "topic_yesRate",
    "topic_noRate",
    "topic_abstainRate",
    "peerSignal"
  ],
  "weights": [
    [
      0.008158646968465473,
      -0.06924034085913656,
      0.02943607919957797,
      -0.042816271146936764,
      -0.03568469186866929,
      0.10614782706931616,
      0.09928987405734747,
      -0.21300940105701707,
      -0.309149851054772,
      0.22529833502866609,
      0.17705026149409264,
      -0.2475591080430002,
      0.33293526566955406,
      -0.012006434087542903,
      -0.17133681133319165,
      0.04226516752810755,
      0.08721605389315419,
      0.2133702491893642,
      -0.38535239130177856,
      -0.8696618943136153,
      1.0320975427714827,
      -0.05022926265082609,
      -1.0244374261928664
    ],
    [
      -0.0014250815963645995,
      -0.08833182200930242,
      -0.14757003154948142,
      0.07466600159515363,
      0.0007742146076074995,
      0.051790109592391026,
      -0.01161614592514078,
      0.054069660404823736,
      0.019785195340700727,
      -0.15677697548780295,
      -0.01361096573108269,
      0.11947815823957263,
      -0.08162503208524652,
      0.05351104663511911,
      0.1448878473112832,
      0.009091192141583668,
      0.10102792953253643,
      -0.2437391583481168,
      0.17971511417922872,
      -0.9171992760556561,
      -0.477261709391402,
      1.4493201282411456,
      0.4140417716147287
    ],
    [
      0.005337997968880527,
      0.04137255255675938,
      -0.016709464516065614,
      -0.1910310187813813,
      -0.009534657566102608,
      -0.06322518524419711,
      -0.036200437562389116,
      0.05125043884553083,
      0.2421135450131451,
      -0.04591351822259692,
      -0.07532787508663617,
      0.18263959981716835,
      -0.1243896620958367,
      0.04992953349467558,
      0.08067822449763977,
      -0.04470520156361156,
      -0.20078457674220068,
      -0.04199308414070137,
      0.10514229622375984,
      1.877831181095949,
      -0.5821096416481824,
      -1.2791962196899638,
      0.7966436150520139
    ]
  ],
  "bias": [
    0.04719714124608678,
    0.06068516213010339,
    -0.10788230337619031
  ],
  "metadata": {
    "trainSessions": "60-72 (reconstructed from topic-history)",
    "testSessions": "73-74 (held-out split)",
    "accuracy": 0.8359033667437676,
    "f1PerClass": {
      "no": 0.33043478260869563,
      "abstain": 0.06311207834602829,
      "yes": 0.9117878896452885
    },
    "trainedAt": "2026-05-22T05:28:55.743Z"
  }
}